digraph Tree {
node [shape=box, style="filled, rounded", color="black", fontname=helvetica] ;
edge [fontname=helvetica] ;
0 [label="petal width (cm) <= 1.75\ngini = 0.444\nsamples = 150\nvalue = [100, 50]\nclass = setosa", fillcolor="#f2c09c"] ;
1 [label="petal length (cm) <= 4.95\ngini = 0.092\nsamples = 104\nvalue = [99, 5]\nclass = setosa", fillcolor="#e68743"] ;
0 -> 1 [labeldistance=2.5, labelangle=45, headlabel="True"] ;
2 [label="gini = 0.02\nsamples = 98\nvalue = [97, 1]\nclass = setosa", fillcolor="#e5823b"] ;
1 -> 2 ;
3 [label="gini = 0.444\nsamples = 6\nvalue = [2, 4]\nclass = versicolor", fillcolor="#9ccef2"] ;
1 -> 3 ;
4 [label="petal length (cm) <= 4.85\ngini = 0.043\nsamples = 46\nvalue = [1, 45]\nclass = versicolor", fillcolor="#3d9fe6"] ;
0 -> 4 [labeldistance=2.5, labelangle=-45, headlabel="False"] ;
5 [label="gini = 0.444\nsamples = 3\nvalue = [1, 2]\nclass = versicolor", fillcolor="#9ccef2"] ;
4 -> 5 ;
6 [label="gini = 0.0\nsamples = 43\nvalue = [0, 43]\nclass = versicolor", fillcolor="#399de5"] ;
4 -> 6 ;
}